<?xml version="1.0"?>
<opencv_storage>
<cascade>
  <stageType>BOOST</stageType>
  <featureType>HAAR</featureType>
  <height>24</height>
  <width>24</width>
  <stageParams>
    <boostType>GAB</boostType>
    <minHitRate>9.9500000476837158e-01</minHitRate>
    <maxFalseAlarm>5.0000000000000000e-01</maxFalseAlarm>
    <weightTrimRate>9.4999998807907104e-01</weightTrimRate>
    <maxDepth>1</maxDepth>
    <maxWeakCount>100</maxWeakCount></stageParams>
  <featureParams>
    <maxCatCount>0</maxCatCount>
    <featSize>1</featSize>
    <mode>BASIC</mode></featureParams>
  <stageNum>16</stageNum>
  <stages>
    <!-- stage 0 -->
    <_>
      <maxWeakCount>6</maxWeakCount>
      <stageThreshold>-2.2882523536682129e+00</stageThreshold>
      <weakClassifiers>
        <_>
          <internalNodes>
            0 -1 49 -1.9642820954322815e-01</internalNodes>
          <leafValues>
            1. -9.5921832323074341e-01</leafValues></_>
        <_>
          <internalNodes>
            0 -1 57 -1.3993945717811584e-01</internalNodes>
          <leafValues>
            7.5704552000388503e-04 -8.6335647106170654e-01</leafValues></_>
        <_>
          <internalNodes>
            0 -1 3 -6.7253544926643372e-02</internalNodes>
          <leafValues>
            2.0639525353908539e-01 -7.1853023767471313e-01</leafValues></_>
        <_>
          <internalNodes>
            0 -1 22 -1.8534529954195023e-02</internalNodes>
          <leafValues>
            4.1069433093070984e-01 -5.3960216045379639e-01</leafValues></_>
        <_>
          <internalNodes>
            0 -1 0 -4.5351363951340318e-04</internalNodes>
          <leafValues>
            -9.6394771337509155e-01 1.7935778200626373e-01</leafValues></_>
        <_>
          <internalNodes>
            0 -1 1 -2.5077905505895615e-02</internalNodes>
          <leafValues>
            6.2727290391921997e-01 -3.1182831525802612e-01</leafValues></_></weakClassifiers></_>
    <!-- stage 1 -->
    <_>
      <maxWeakCount>6</maxWeakCount>
      <stageThreshold>-2.4602653980255127e+00</stageThreshold>
      <weakClassifiers>
        <_>
          <internalNodes>
            0 -1 99 1.0520933568477631e-01</internalNodes>
          <leafValues>
            -9.5921832323074341e-01 1.</leafValues></_>
        <_>
          <internalNodes>
            0 -1 79 -4.4571541249752045e-02</internalNodes>
          <leafValues>
            4.9598399549722672e-02 -8.2969337701797485e-01</leafValues></_>
        <_>
          <internalNodes>
            0 -1 15 -6.4430117607116699e-02</internalNodes>
          <leafValues>
            3.0916696786880493e-01 -5.8353132009506226e-01</leafValues></_>
        <_>
          <internalNodes>
            0 -1 18 -1.8547615036368370e-03</internalNodes>
          <leafValues>
            -7.6510936021804810e-01 1.9736215472221375e-01</leafValues></_>
        <_>
          <internalNodes>
            0 -1 30 1.1386618018150330e-02</internalNodes>
          <leafValues>
            -5.8269459009170532e-01 2.8944119811058044e-01</leafValues></_>
        <_>
          <internalNodes>
            0 -1 21 -1.9166495185345411e-03</internalNodes>
          <leafValues>
            2.9751020669937134e-01 -5.5697154998779297e-01</leafValues></_></weakClassifiers></_>
    <!-- stage 2 -->
    <_>
      <maxWeakCount>6</maxWeakCount>
      <stageThreshold>-1.9297600984573364e+00</stageThreshold>
      <weakClassifiers>
        <_>
          <internalNodes>
            0 -1 97 -2.1511612460017204e-02</internalNodes>
          <leafValues>
            -1.0000000149011612e-01 -9.6237707138061523e-01</leafValues></_>
        <_>
          <internalNodes>
            0 -1 67 -1.7155276611447334e-02</internalNodes>
          <leafValues>
            -1.4842598699033260e-02 -8.2695913314819336e-01</leafValues></_>
        <_>
          <internalNodes>
            0 -1 76 7.3246005922555923e-03</internalNodes>
          <leafValues>
            -4.5680287480354309e-01 5.0746887922286987e-01</leafValues></_>
        <_>
          <internalNodes>
            0 -1 98 1.0997733334079385e-03</internalNodes>
          <leafValues>
            1.9544963538646698e-01 -7.6611196994781494e-01</leafValues></_>
        <_>
          <internalNodes>
            0 -1 62 5.3884726949036121e-03</internalNodes>
          <leafValues>
            1.1322184652090073e-01 -1.</leafValues></_>
        <_>
          <internalNodes>
            0 -1 42 -3.7478150334209204e-03</internalNodes>
          <leafValues>
            -1. 1.5715251863002777e-01</leafValues></_></weakClassifiers></_>
    <!-- stage 3 -->
    <_>
      <maxWeakCount>7</maxWeakCount>
      <stageThreshold>-2.5692903995513916e+00</stageThreshold>
      <weakClassifiers>
        <_>
          <internalNodes>
            0 -1 95 -2.0042400807142258e-02</internalNodes>
          <leafValues>
            4.0000000596046448e-01 -9.6083438396453857e-01</leafValues></_>
        <_>
          <internalNodes>
            0 -1 71 4.9543040804564953e-03</internalNodes>
          <leafValues>
            -8.4438198804855347e-01 -1.1506573297083378e-02</leafValues></_>
        <_>
          <internalNodes>
            0 -1 75 1.3969801366329193e-02</internalNodes>
          <leafValues>
            -4.6913084387779236e-01 6.8595963716506958e-01</leafValues></_>
        <_>
          <internalNodes>
            0 -1 66 -3.0978340655565262e-03</internalNodes>
          <leafValues>
            4.5155295729637146e-01 -4.4940057396888733e-01</leafValues></_>
        <_>
          <internalNodes>
            0 -1 69 9.1435638023540378e-04</internalNodes>
          <leafValues>
            -4.3167990446090698e-01 4.8764172196388245e-01</leafValues></_>
        <_>
          <internalNodes>
            0 -1 9 3.1939722597599030e-02</internalNodes>
          <leafValues>
            2.2522123157978058e-01 -8.6878174543380737e-01</leafValues></_>
        <_>
          <internalNodes>
            0 -1 11 6.5801106393337250e-04</internalNodes>
          <leafValues>
            -4.7195923328399658e-01 4.3744415044784546e-01</leafValues></_></weakClassifiers></_>
    <!-- stage 4 -->
    <_>
      <maxWeakCount>6</maxWeakCount>
      <stageThreshold>-2.1951484680175781e+00</stageThreshold>
      <weakClassifiers>
        <_>
          <internalNodes>
            0 -1 41 -5.6680858135223389e-02</internalNodes>
          <leafValues>
            1. -9.5838642120361328e-01</leafValues></_>
        <_>
          <internalNodes>
            0 -1 40 -4.8995479010045528e-03</internalNodes>
          <leafValues>
            9.9233001470565796e-02 -8.0700099468231201e-01</leafValues></_>
        <_>
          <internalNodes>
            0 -1 90 -1.5980539843440056e-02</internalNodes>
          <leafValues>
            1.4146989583969116e-01 -6.2884873151779175e-01</leafValues></_>
        <_>
          <internalNodes>
            0 -1 51 -1.8447119742631912e-02</internalNodes>
          <leafValues>
            2.6434758305549622e-01 -5.6410461664199829e-01</leafValues></_>
        <_>
          <internalNodes>
            0 -1 31 -8.7716598063707352e-03</internalNodes>
          <leafValues>
            5.1265311241149902e-01 -3.6986273527145386e-01</leafValues></_>
        <_>
          <internalNodes>
            0 -1 59 -1.5209654346108437e-02</internalNodes>
          <leafValues>
            3.8687616586685181e-01 -4.6571579575538635e-01</leafValues></_></weakClassifiers></_>
    <!-- stage 5 -->
    <_>
      <maxWeakCount>6</maxWeakCount>
      <stageThreshold>-2.3211550712585449e+00</stageThreshold>
      <weakClassifiers>
        <_>
          <internalNodes>
            0 -1 7 -1.5211504697799683e-01</internalNodes>
          <leafValues>
            5.0000000000000000e-01 -9.5753717422485352e-01</leafValues></_>
        <_>
          <internalNodes>
            0 -1 54 8.1994161009788513e-03</internalNodes>
          <leafValues>
            -8.2744264602661133e-01 -1.7614907026290894e-01</leafValues></_>
        <_>
          <internalNodes>
            0 -1 60 3.2764254137873650e-03</internalNodes>
          <leafValues>
            -4.8628938198089600e-01 2.8140026330947876e-01</leafValues></_>
        <_>
          <internalNodes>
            0 -1 91 -1.1243396438658237e-02</internalNodes>
          <leafValues>
            -1. 1.1508293449878693e-01</leafValues></_>
        <_>
          <internalNodes>
            0 -1 65 1.0871329344809055e-02</internalNodes>
          <leafValues>
            -3.2324925065040588e-01 4.3903413414955139e-01</leafValues></_>
        <_>
          <internalNodes>
            0 -1 35 -7.3289632564410567e-04</internalNodes>
          <leafValues>
            3.4026092290878296e-01 -4.9301305413246155e-01</leafValues></_></weakClassifiers></_>
    <!-- stage 6 -->
    <_>
      <maxWeakCount>7</maxWeakCount>
      <stageThreshold>-2.0904955863952637e+00</stageThreshold>
      <weakClassifiers>
        <_>
          <internalNodes>
            0 -1 6 -8.2035928964614868e-02</internalNodes>
          <leafValues>
            1. -9.5755517482757568e-01</leafValues></_>
        <_>
          <internalNodes>
            0 -1 38 -7.7797700650990009e-03</internalNodes>
          <leafValues>
            -1.6395881772041321e-01 -8.2450407743453979e-01</leafValues></_>
        <_>
          <internalNodes>
            0 -1 55 2.6256192941218615e-03</internalNodes>
          <leafValues>
            -5.0423455238342285e-01 2.0779964327812195e-01</leafValues></_>
        <_>
          <internalNodes>
            0 -1 64 2.3044308181852102e-03</internalNodes>
          <leafValues>
            1.1317376047372818e-01 -1.</leafValues></_>
        <_>
          <internalNodes>
            0 -1 10 1.0383676271885633e-04</internalNodes>
          <leafValues>
            -3.6748149991035461e-01 3.8493403792381287e-01</leafValues></_>
        <_>
          <internalNodes>
            0 -1 70 -1.8086500931531191e-03</internalNodes>
          <leafValues>
            -7.5966900587081909e-01 1.8463060259819031e-01</leafValues></_>
        <_>
          <internalNodes>
            0 -1 92 -2.7202867204323411e-04</internalNodes>
          <leafValues>
            2.9881915450096130e-01 -4.8694017529487610e-01</leafValues></_></weakClassifiers></_>
    <!-- stage 7 -->
    <_>
      <maxWeakCount>7</maxWeakCount>
      <stageThreshold>-2.2595970630645752e+00</stageThreshold>
      <weakClassifiers>
        <_>
          <internalNodes>
            0 -1 56 -2.3869404196739197e-01</internalNodes>
          <leafValues>
            1. -9.5755517482757568e-01</leafValues></_>
        <_>
          <internalNodes>
            0 -1 95 -1.5144218690693378e-02</internalNodes>
          <leafValues>
            1.7661145329475403e-01 -7.9422485828399658e-01</leafValues></_>
        <_>
          <internalNodes>
            0 -1 29 -6.2280636280775070e-02</internalNodes>
          <leafValues>
            4.8278412222862244e-01 -3.8774448633193970e-01</leafValues></_>
        <_>
          <internalNodes>
            0 -1 25 2.2528977133333683e-03</internalNodes>
          <leafValues>
            -4.0980365872383118e-01 2.9399850964546204e-01</leafValues></_>
        <_>
          <internalNodes>
            0 -1 84 1.9884509965777397e-03</internalNodes>
          <leafValues>
            -2.5007748603820801e-01 5.8448773622512817e-01</leafValues></_>
        <_>
          <internalNodes>
            0 -1 73 3.8737012073397636e-04</internalNodes>
          <leafValues>
            2.2067879140377045e-01 -7.0922040939331055e-01</leafValues></_>
        <_>
          <internalNodes>
            0 -1 89 -1.0247163474559784e-02</internalNodes>
          <leafValues>
            5.6302392482757568e-01 -2.8933846950531006e-01</leafValues></_></weakClassifiers></_>
    <!-- stage 8 -->
    <_>
      <maxWeakCount>7</maxWeakCount>
      <stageThreshold>-2.2722423076629639e+00</stageThreshold>
      <weakClassifiers>
        <_>
          <internalNodes>
            0 -1 46 -2.7948147058486938e-01</internalNodes>
          <leafValues>
            1. -9.5755517482757568e-01</leafValues></_>
        <_>
          <internalNodes>
            0 -1 52 -3.5454943776130676e-02</internalNodes>
          <leafValues>
            3.2244011759757996e-02 -7.8828507661819458e-01</leafValues></_>
        <_>
          <internalNodes>
            0 -1 53 4.3261842802166939e-03</internalNodes>
          <leafValues>
            -4.3798753619194031e-01 2.9701358079910278e-01</leafValues></_>
        <_>
          <internalNodes>
            0 -1 105 1.8903019372373819e-04</internalNodes>
          <leafValues>
            1.5720321238040924e-01 -7.6323568820953369e-01</leafValues></_>
        <_>
          <internalNodes>
            0 -1 8 2.7372841723263264e-03</internalNodes>
          <leafValues>
            1.0745289176702499e-01 -9.0658444166183472e-01</leafValues></_>
        <_>
          <internalNodes>
            0 -1 34 -2.8047084342688322e-03</internalNodes>
          <leafValues>
            -6.5179014205932617e-01 1.9411090016365051e-01</leafValues></_>
        <_>
          <internalNodes>
            0 -1 88 6.8010931136086583e-04</internalNodes>
          <leafValues>
            -4.1548264026641846e-01 2.9871961474418640e-01</leafValues></_></weakClassifiers></_>
    <!-- stage 9 -->
    <_>
      <maxWeakCount>7</maxWeakCount>
      <stageThreshold>-2.2715992927551270e+00</stageThreshold>
      <weakClassifiers>
        <_>
          <internalNodes>
            0 -1 19 3.0027124285697937e-01</internalNodes>
          <leafValues>
            -9.5755517482757568e-01 1.</leafValues></_>
        <_>
          <internalNodes>
            0 -1 38 -7.7874739654362202e-03</internalNodes>
          <leafValues>
            -3.1063044071197510e-01 -8.2360500097274780e-01</leafValues></_>
        <_>
          <internalNodes>
            0 -1 23 1.0448163375258446e-03</internalNodes>
          <leafValues>
            -6.9156825542449951e-01 -2.1466737613081932e-02</leafValues></_>
        <_>
          <internalNodes>
            0 -1 33 7.4117386247962713e-05</internalNodes>
          <leafValues>
            2.0119607448577881e-01 -5.5010610818862915e-01</leafValues></_>
        <_>
          <internalNodes>
            0 -1 71 4.9838027916848660e-03</internalNodes>
          <leafValues>
            -2.3233239352703094e-01 5.1952475309371948e-01</leafValues></_>
        <_>
          <internalNodes>
            0 -1 68 2.9287212528288364e-03</internalNodes>
          <leafValues>
            1.7363218963146210e-01 -7.5577241182327271e-01</leafValues></_>
        <_>
          <internalNodes>
            0 -1 50 -7.5375381857156754e-04</internalNodes>
          <leafValues>
            3.1738135218620300e-01 -3.7147119641304016e-01</leafValues></_></weakClassifiers></_>
    <!-- stage 10 -->
    <_>
      <maxWeakCount>8</maxWeakCount>
      <stageThreshold>-1.9894795417785645e+00</stageThreshold>
      <weakClassifiers>
        <_>
          <internalNodes>
            0 -1 104 4.8583552241325378e-02</internalNodes>
          <leafValues>
            -9.5755517482757568e-01 1.</leafValues></_>
        <_>
          <internalNodes>
            0 -1 13 -5.4501798003911972e-02</internalNodes>
          <leafValues>
            -9.4115231186151505e-03 -7.9206836223602295e-01</leafValues></_>
        <_>
          <internalNodes>
            0 -1 20 9.7252111881971359e-03</internalNodes>
          <leafValues>
            -5.1855647563934326e-01 1.3074021041393280e-01</leafValues></_>
        <_>
          <internalNodes>
            0 -1 86 7.1778357960283756e-03</internalNodes>
          <leafValues>
            -2.3173753917217255e-01 5.7622009515762329e-01</leafValues></_>
        <_>
          <internalNodes>
            0 -1 78 -2.0419408101588488e-03</internalNodes>
          <leafValues>
            -9.4563257694244385e-01 1.3360519707202911e-01</leafValues></_>
        <_>
          <internalNodes>
            0 -1 77 3.2720304443500936e-04</internalNodes>
          <leafValues>
            -4.5988929271697998e-01 2.9166865348815918e-01</leafValues></_>
        <_>
          <internalNodes>
            0 -1 93 -6.6879540681838989e-03</internalNodes>
          <leafValues>
            4.2303672432899475e-01 -3.1274113059043884e-01</leafValues></_>
        <_>
          <internalNodes>
            0 -1 47 1.6340967267751694e-02</internalNodes>
          <leafValues>
            -2.3561121523380280e-01 5.9694653749465942e-01</leafValues></_></weakClassifiers></_>
    <!-- stage 11 -->
    <_>
      <maxWeakCount>7</maxWeakCount>
      <stageThreshold>-2.2572112083435059e+00</stageThreshold>
      <weakClassifiers>
        <_>
          <internalNodes>
            0 -1 96 1.7688401043415070e-01</internalNodes>
          <leafValues>
            -9.5753717422485352e-01 5.0000000000000000e-01</leafValues></_>
        <_>
          <internalNodes>
            0 -1 48 -9.7827635705471039e-02</internalNodes>
          <leafValues>
            8.9769214391708374e-03 -7.8919124603271484e-01</leafValues></_>
        <_>
          <internalNodes>
            0 -1 82 -9.1079128906130791e-03</internalNodes>
          <leafValues>
            -1. -1.2304711341857910e-01</leafValues></_>
        <_>
          <internalNodes>
            0 -1 72 -7.6547553762793541e-03</internalNodes>
          <leafValues>
            3.6993253231048584e-01 -3.1113719940185547e-01</leafValues></_>
        <_>
          <internalNodes>
            0 -1 85 -1.2698353384621441e-04</internalNodes>
          <leafValues>
            2.7114859223365784e-01 -4.5882895588874817e-01</leafValues></_>
        <_>
          <internalNodes>
            0 -1 103 -3.8529217708855867e-03</internalNodes>
          <leafValues>
            -7.2897309064865112e-01 1.7443597316741943e-01</leafValues></_>
        <_>
          <internalNodes>
            0 -1 107 9.1975498435203917e-06</internalNodes>
          <leafValues>
            2.0809449255466461e-01 -4.9976202845573425e-01</leafValues></_></weakClassifiers></_>
    <!-- stage 12 -->
    <_>
      <maxWeakCount>8</maxWeakCount>
      <stageThreshold>-2.2277209758758545e+00</stageThreshold>
      <weakClassifiers>
        <_>
          <internalNodes>
            0 -1 24 2.7472794055938721e-01</internalNodes>
          <leafValues>
            -9.5753717422485352e-01 5.0000000000000000e-01</leafValues></_>
        <_>
          <internalNodes>
            0 -1 102 -4.8326898366212845e-02</internalNodes>
          <leafValues>
            2.7528551220893860e-01 -7.6997864246368408e-01</leafValues></_>
        <_>
          <internalNodes>
            0 -1 26 2.3050484014675021e-04</internalNodes>
          <leafValues>
            -5.3640580177307129e-01 9.2975020408630371e-02</leafValues></_>
        <_>
          <internalNodes>
            0 -1 58 5.4827239364385605e-03</internalNodes>
          <leafValues>
            1.5071012079715729e-01 -7.5996416807174683e-01</leafValues></_>
        <_>
          <internalNodes>
            0 -1 5 1.1614635695877951e-05</internalNodes>
          <leafValues>
            2.7016174793243408e-01 -4.4251719117164612e-01</leafValues></_>
        <_>
          <internalNodes>
            0 -1 106 1.8211069982498884e-03</internalNodes>
          <leafValues>
            1.8945711851119995e-01 -6.0768681764602661e-01</leafValues></_>
        <_>
          <internalNodes>
            0 -1 74 -4.4749863445758820e-02</internalNodes>
          <leafValues>
            3.0515325069427490e-01 -3.8958233594894409e-01</leafValues></_>
        <_>
          <internalNodes>
            0 -1 87 1.1646649800240993e-03</internalNodes>
          <leafValues>
            1.1469081044197083e-01 -1.</leafValues></_></weakClassifiers></_>
    <!-- stage 13 -->
    <_>
      <maxWeakCount>7</maxWeakCount>
      <stageThreshold>-2.1881999969482422e+00</stageThreshold>
      <weakClassifiers>
        <_>
          <internalNodes>
            0 -1 44 1.1729597300291061e-01</internalNodes>
          <leafValues>
            -9.5755517482757568e-01 1.</leafValues></_>
        <_>
          <internalNodes>
            0 -1 61 5.2199810743331909e-03</internalNodes>
          <leafValues>
            -8.0706775188446045e-01 -2.8636974096298218e-01</leafValues></_>
        <_>
          <internalNodes>
            0 -1 2 -1.7629534006118774e-02</internalNodes>
          <leafValues>
            3.9312529563903809e-01 -3.8119745254516602e-01</leafValues></_>
        <_>
          <internalNodes>
            0 -1 81 1.3536531478166580e-03</internalNodes>
          <leafValues>
            1.1061470955610275e-01 -9.8412966728210449e-01</leafValues></_>
        <_>
          <internalNodes>
            0 -1 4 1.2232414446771145e-03</internalNodes>
          <leafValues>
            1.6793587803840637e-01 -6.5429002046585083e-01</leafValues></_>
        <_>
          <internalNodes>
            0 -1 101 -1.6025563236325979e-03</internalNodes>
          <leafValues>
            3.8411059975624084e-01 -2.8942883014678955e-01</leafValues></_>
        <_>
          <internalNodes>
            0 -1 36 -1.3256038073450327e-04</internalNodes>
          <leafValues>
            -7.0504081249237061e-01 1.5671502053737640e-01</leafValues></_></weakClassifiers></_>
    <!-- stage 14 -->
    <_>
      <maxWeakCount>9</maxWeakCount>
      <stageThreshold>-2.2929718494415283e+00</stageThreshold>
      <weakClassifiers>
        <_>
          <internalNodes>
            0 -1 17 1.5083512663841248e-01</internalNodes>
          <leafValues>
            -9.5755517482757568e-01 1.</leafValues></_>
        <_>
          <internalNodes>
            0 -1 61 5.1721120253205299e-03</internalNodes>
          <leafValues>
            -8.0838811397552490e-01 -2.4922454357147217e-01</leafValues></_>
        <_>
          <internalNodes>
            0 -1 12 -2.6692738756537437e-03</internalNodes>
          <leafValues>
            1.5119084715843201e-01 -5.3198844194412231e-01</leafValues></_>
        <_>
          <internalNodes>
            0 -1 28 -1.1147895565954968e-04</internalNodes>
          <leafValues>
            3.0287232995033264e-01 -3.3716812729835510e-01</leafValues></_>
        <_>
          <internalNodes>
            0 -1 83 7.5259921140968800e-04</internalNodes>
          <leafValues>
            -2.9754421114921570e-01 3.9399760961532593e-01</leafValues></_>
        <_>
          <internalNodes>
            0 -1 14 1.5070715546607971e-01</internalNodes>
          <leafValues>
            -1.5716032683849335e-01 6.9084137678146362e-01</leafValues></_>
        <_>
          <internalNodes>
            0 -1 45 -1.5969455242156982e-02</internalNodes>
          <leafValues>
            -3.8819527626037598e-01 3.3759632706642151e-01</leafValues></_>
        <_>
          <internalNodes>
            0 -1 63 -3.1399661675095558e-03</internalNodes>
          <leafValues>
            4.1117295622825623e-01 -2.7057802677154541e-01</leafValues></_>
        <_>
          <internalNodes>
            0 -1 27 -2.3869058117270470e-02</internalNodes>
          <leafValues>
            -1. 1.3381429016590118e-01</leafValues></_></weakClassifiers></_>
    <!-- stage 15 -->
    <_>
      <maxWeakCount>8</maxWeakCount>
      <stageThreshold>-2.1605000495910645e+00</stageThreshold>
      <weakClassifiers>
        <_>
          <internalNodes>
            0 -1 16 1.1896441876888275e-01</internalNodes>
          <leafValues>
            -9.5838642120361328e-01 1.</leafValues></_>
        <_>
          <internalNodes>
            0 -1 100 9.9667198956012726e-02</internalNodes>
          <leafValues>
            -7.7007120847702026e-01 8.3781552314758301e-01</leafValues></_>
        <_>
          <internalNodes>
            0 -1 37 -2.2031473927199841e-03</internalNodes>
          <leafValues>
            3.6364921927452087e-01 -4.3009948730468750e-01</leafValues></_>
        <_>
          <internalNodes>
            0 -1 94 9.2752501368522644e-03</internalNodes>
          <leafValues>
            1.4328937232494354e-01 -7.7315896749496460e-01</leafValues></_>
        <_>
          <internalNodes>
            0 -1 43 -3.4412746317684650e-03</internalNodes>
          <leafValues>
            -7.2687983512878418e-01 1.4736428856849670e-01</leafValues></_>
        <_>
          <internalNodes>
            0 -1 32 1.6235359944403172e-03</internalNodes>
          <leafValues>
            -3.5346204042434692e-01 3.3912035822868347e-01</leafValues></_>
        <_>
          <internalNodes>
            0 -1 80 4.4126152992248535e-02</internalNodes>
          <leafValues>
            -1.8887791037559509e-01 6.0358059406280518e-01</leafValues></_>
        <_>
          <internalNodes>
            0 -1 39 2.8850680682808161e-03</internalNodes>
          <leafValues>
            -3.1884929537773132e-01 4.4996440410614014e-01</leafValues></_></weakClassifiers></_></stages>
  <features>
    <_>
      <rects>
        <_>
          0 1 2 2 -1.</_>
        <_>
          1 1 1 2 2.</_></rects>
      <tilted>0</tilted></_>
    <_>
      <rects>
        <_>
          0 6 9 6 -1.</_>
        <_>
          3 6 3 6 3.</_></rects>
      <tilted>0</tilted></_>
    <_>
      <rects>
        <_>
          0 7 8 2 -1.</_>
        <_>
          4 7 4 2 2.</_></rects>
      <tilted>0</tilted></_>
    <_>
      <rects>
        <_>
          0 7 24 8 -1.</_>
        <_>
          8 7 8 8 3.</_></rects>
      <tilted>0</tilted></_>
    <_>
      <rects>
        <_>
          0 14 1 6 -1.</_>
        <_>
          0 16 1 2 3.</_></rects>
      <tilted>0</tilted></_>
    <_>
      <rects>
        <_>
          0 14 1 8 -1.</_>
        <_>
          0 18 1 4 2.</_></rects>
      <tilted>0</tilted></_>
    <_>
      <rects>
        <_>
          0 14 14 2 -1.</_>
        <_>
          7 14 7 2 2.</_></rects>
      <tilted>0</tilted></_>
    <_>
      <rects>
        <_>
          0 14 21 2 -1.</_>
        <_>
          7 14 7 2 3.</_></rects>
      <tilted>0</tilted></_>
    <_>
      <rects>
        <_>
          0 17 2 5 -1.</_>
        <_>
          1 17 1 5 2.</_></rects>
      <tilted>0</tilted></_>
    <_>
      <rects>
        <_>
          0 19 20 5 -1.</_>
        <_>
          10 19 10 5 2.</_></rects>
      <tilted>0</tilted></_>
    <_>
      <rects>
        <_>
          0 20 2 1 -1.</_>
        <_>
          1 20 1 1 2.</_></rects>
      <tilted>0</tilted></_>
    <_>
      <rects>
        <_>
          0 20 8 2 -1.</_>
        <_>
          0 20 4 1 2.</_>
        <_>
          4 21 4 1 2.</_></rects>
      <tilted>0</tilted></_>
    <_>
      <rects>
        <_>
          0 21 10 3 -1.</_>
        <_>
          0 22 10 1 3.</_></rects>
      <tilted>0</tilted></_>
    <_>
      <rects>
        <_>
          1 0 8 10 -1.</_>
        <_>
          1 0 4 5 2.</_>
        <_>
          5 5 4 5 2.</_></rects>
      <tilted>0</tilted></_>
    <_>
      <rects>
        <_>
          1 0 11 18 -1.</_>
        <_>
          1 6 11 6 3.</_></rects>
      <tilted>0</tilted></_>
    <_>
      <rects>
        <_>
          1 8 15 10 -1.</_>
        <_>
          6 8 5 10 3.</_></rects>
      <tilted>0</tilted></_>
    <_>
      <rects>
        <_>
          1 10 16 6 -1.</_>
        <_>
          9 10 8 6 2.</_></rects>
      <tilted>0</tilted></_>
    <_>
      <rects>
        <_>
          1 11 18 5 -1.</_>
        <_>
          10 11 9 5 2.</_></rects>
      <tilted>0</tilted></_>
    <_>
      <rects>
        <_>
          2 0 21 1 -1.</_>
        <_>
          9 0 7 1 3.</_></rects>
      <tilted>0</tilted></_>
    <_>
      <rects>
        <_>
          2 2 19 18 -1.</_>
        <_>
          2 8 19 6 3.</_></rects>
      <tilted>0</tilted></_>
    <_>
      <rects>
        <_>
          2 4 9 8 -1.</_>
        <_>
          5 4 3 8 3.</_></rects>
      <tilted>0</tilted></_>
    <_>
      <rects>
        <_>
          2 6 13 2 -1.</_>
        <_>
          2 7 13 1 2.</_></rects>
      <tilted>0</tilted></_>
    <_>
      <rects>
        <_>
          2 7 20 4 -1.</_>
        <_>
          2 9 20 2 2.</_></rects>
      <tilted>0</tilted></_>
    <_>
      <rects>
        <_>
          2 10 5 12 -1.</_>
        <_>
          2 16 5 6 2.</_></rects>
      <tilted>0</tilted></_>
    <_>
      <rects>
        <_>
          2 10 22 6 -1.</_>
        <_>
          13 10 11 6 2.</_></rects>
      <tilted>0</tilted></_>
    <_>
      <rects>
        <_>
          2 16 6 8 -1.</_>
        <_>
          2 16 3 4 2.</_>
        <_>
          5 20 3 4 2.</_></rects>
      <tilted>0</tilted></_>
    <_>
      <rects>
        <_>
          3 2 8 1 -1.</_>
        <_>
          7 2 4 1 2.</_></rects>
      <tilted>0</tilted></_>
    <_>
      <rects>
        <_>
          3 8 3 9 -1.</_>
        <_>
          3 11 3 3 3.</_></rects>
      <tilted>0</tilted></_>
    <_>
      <rects>
        <_>
          3 12 1 2 -1.</_>
        <_>
          3 13 1 1 2.</_></rects>
      <tilted>0</tilted></_>
    <_>
      <rects>
        <_>
          3 12 18 3 -1.</_>
        <_>
          12 12 9 3 2.</_></rects>
      <tilted>0</tilted></_>
    <_>
      <rects>
        <_>
          3 14 14 6 -1.</_>
        <_>
          3 17 14 3 2.</_></rects>
      <tilted>0</tilted></_>
    <_>
      <rects>
        <_>
          3 18 8 6 -1.</_>
        <_>
          3 20 8 2 3.</_></rects>
      <tilted>0</tilted></_>
    <_>
      <rects>
        <_>
          3 19 6 3 -1.</_>
        <_>
          5 19 2 3 3.</_></rects>
      <tilted>0</tilted></_>
    <_>
      <rects>
        <_>
          4 0 20 1 -1.</_>
        <_>
          14 0 10 1 2.</_></rects>
      <tilted>0</tilted></_>
    <_>
      <rects>
        <_>
          4 8 20 2 -1.</_>
        <_>
          4 8 10 1 2.</_>
        <_>
          14 9 10 1 2.</_></rects>
      <tilted>0</tilted></_>
    <_>
      <rects>
        <_>
          4 9 9 1 -1.</_>
        <_>
          7 9 3 1 3.</_></rects>
      <tilted>0</tilted></_>
    <_>
      <rects>
        <_>
          5 1 3 1 -1.</_>
        <_>
          6 1 1 1 3.</_></rects>
      <tilted>0</tilted></_>
    <_>
      <rects>
        <_>
          5 1 2 7 -1.</_>
        <_>
          6 1 1 7 2.</_></rects>
      <tilted>0</tilted></_>
    <_>
      <rects>
        <_>
          5 21 6 3 -1.</_>
        <_>
          5 22 6 1 3.</_></rects>
      <tilted>0</tilted></_>
    <_>
      <rects>
        <_>
          6 11 1 12 -1.</_>
        <_>
          6 15 1 4 3.</_></rects>
      <tilted>0</tilted></_>
    <_>
      <rects>
        <_>
          6 17 2 2 -1.</_>
        <_>
          7 17 1 2 2.</_></rects>
      <tilted>0</tilted></_>
    <_>
      <rects>
        <_>
          6 21 17 2 -1.</_>
        <_>
          6 22 17 1 2.</_></rects>
      <tilted>0</tilted></_>
    <_>
      <rects>
        <_>
          6 23 10 1 -1.</_>
        <_>
          11 23 5 1 2.</_></rects>
      <tilted>0</tilted></_>
    <_>
      <rects>
        <_>
          7 3 3 8 -1.</_>
        <_>
          8 3 1 8 3.</_></rects>
      <tilted>0</tilted></_>
    <_>
      <rects>
        <_>
          7 3 3 21 -1.</_>
        <_>
          7 10 3 7 3.</_></rects>
      <tilted>0</tilted></_>
    <_>
      <rects>
        <_>
          7 5 4 12 -1.</_>
        <_>
          7 11 4 6 2.</_></rects>
      <tilted>0</tilted></_>
    <_>
      <rects>
        <_>
          8 0 6 20 -1.</_>
        <_>
          8 10 6 10 2.</_></rects>
      <tilted>0</tilted></_>
    <_>
      <rects>
        <_>
          8 0 9 6 -1.</_>
        <_>
          8 3 9 3 2.</_></rects>
      <tilted>0</tilted></_>
    <_>
      <rects>
        <_>
          8 0 11 12 -1.</_>
        <_>
          8 4 11 4 3.</_></rects>
      <tilted>0</tilted></_>
    <_>
      <rects>
        <_>
          8 2 6 16 -1.</_>
        <_>
          8 10 6 8 2.</_></rects>
      <tilted>0</tilted></_>
    <_>
      <rects>
        <_>
          8 4 14 2 -1.</_>
        <_>
          8 4 7 1 2.</_>
        <_>
          15 5 7 1 2.</_></rects>
      <tilted>0</tilted></_>
    <_>
      <rects>
        <_>
          8 6 13 9 -1.</_>
        <_>
          8 9 13 3 3.</_></rects>
      <tilted>0</tilted></_>
    <_>
      <rects>
        <_>
          8 10 6 5 -1.</_>
        <_>
          10 10 2 5 3.</_></rects>
      <tilted>0</tilted></_>
    <_>
      <rects>
        <_>
          8 12 6 1 -1.</_>
        <_>
          10 12 2 1 3.</_></rects>
      <tilted>0</tilted></_>
    <_>
      <rects>
        <_>
          8 15 3 8 -1.</_>
        <_>
          9 15 1 8 3.</_></rects>
      <tilted>0</tilted></_>
    <_>
      <rects>
        <_>
          8 16 3 4 -1.</_>
        <_>
          9 16 1 4 3.</_></rects>
      <tilted>0</tilted></_>
    <_>
      <rects>
        <_>
          9 0 5 20 -1.</_>
        <_>
          9 10 5 10 2.</_></rects>
      <tilted>0</tilted></_>
    <_>
      <rects>
        <_>
          9 0 6 21 -1.</_>
        <_>
          9 7 6 7 3.</_></rects>
      <tilted>0</tilted></_>
    <_>
      <rects>
        <_>
          9 5 4 6 -1.</_>
        <_>
          9 7 4 2 3.</_></rects>
      <tilted>0</tilted></_>
    <_>
      <rects>
        <_>
          9 7 3 12 -1.</_>
        <_>
          9 11 3 4 3.</_></rects>
      <tilted>0</tilted></_>
    <_>
      <rects>
        <_>
          9 17 3 6 -1.</_>
        <_>
          10 17 1 6 3.</_></rects>
      <tilted>0</tilted></_>
    <_>
      <rects>
        <_>
          9 21 6 2 -1.</_>
        <_>
          9 22 6 1 2.</_></rects>
      <tilted>0</tilted></_>
    <_>
      <rects>
        <_>
          9 23 12 1 -1.</_>
        <_>
          13 23 4 1 3.</_></rects>
      <tilted>0</tilted></_>
    <_>
      <rects>
        <_>
          10 7 1 6 -1.</_>
        <_>
          10 10 1 3 2.</_></rects>
      <tilted>0</tilted></_>
    <_>
      <rects>
        <_>
          10 7 3 3 -1.</_>
        <_>
          10 8 3 1 3.</_></rects>
      <tilted>0</tilted></_>
    <_>
      <rects>
        <_>
          10 8 4 14 -1.</_>
        <_>
          10 8 2 7 2.</_>
        <_>
          12 15 2 7 2.</_></rects>
      <tilted>0</tilted></_>
    <_>
      <rects>
        <_>
          10 10 6 2 -1.</_>
        <_>
          12 10 2 2 3.</_></rects>
      <tilted>0</tilted></_>
    <_>
      <rects>
        <_>
          10 11 6 3 -1.</_>
        <_>
          12 11 2 3 3.</_></rects>
      <tilted>0</tilted></_>
    <_>
      <rects>
        <_>
          10 18 10 4 -1.</_>
        <_>
          10 18 5 2 2.</_>
        <_>
          15 20 5 2 2.</_></rects>
      <tilted>0</tilted></_>
    <_>
      <rects>
        <_>
          10 19 3 3 -1.</_>
        <_>
          10 20 3 1 3.</_></rects>
      <tilted>0</tilted></_>
    <_>
      <rects>
        <_>
          11 0 8 1 -1.</_>
        <_>
          15 0 4 1 2.</_></rects>
      <tilted>0</tilted></_>
    <_>
      <rects>
        <_>
          11 15 3 4 -1.</_>
        <_>
          12 15 1 4 3.</_></rects>
      <tilted>0</tilted></_>
    <_>
      <rects>
        <_>
          11 15 6 5 -1.</_>
        <_>
          13 15 2 5 3.</_></rects>
      <tilted>0</tilted></_>
    <_>
      <rects>
        <_>
          12 0 6 1 -1.</_>
        <_>
          15 0 3 1 2.</_></rects>
      <tilted>0</tilted></_>
    <_>
      <rects>
        <_>
          12 7 7 12 -1.</_>
        <_>
          12 11 7 4 3.</_></rects>
      <tilted>0</tilted></_>
    <_>
      <rects>
        <_>
          12 13 3 11 -1.</_>
        <_>
          13 13 1 11 3.</_></rects>
      <tilted>0</tilted></_>
    <_>
      <rects>
        <_>
          12 15 3 4 -1.</_>
        <_>
          13 15 1 4 3.</_></rects>
      <tilted>0</tilted></_>
    <_>
      <rects>
        <_>
          12 16 3 8 -1.</_>
        <_>
          13 16 1 8 3.</_></rects>
      <tilted>0</tilted></_>
    <_>
      <rects>
        <_>
          12 23 6 1 -1.</_>
        <_>
          15 23 3 1 2.</_></rects>
      <tilted>0</tilted></_>
    <_>
      <rects>
        <_>
          13 0 1 24 -1.</_>
        <_>
          13 8 1 8 3.</_></rects>
      <tilted>0</tilted></_>
    <_>
      <rects>
        <_>
          13 0 5 12 -1.</_>
        <_>
          13 4 5 4 3.</_></rects>
      <tilted>0</tilted></_>
    <_>
      <rects>
        <_>
          13 1 2 6 -1.</_>
        <_>
          13 1 1 3 2.</_>
        <_>
          14 4 1 3 2.</_></rects>
      <tilted>0</tilted></_>
    <_>
      <rects>
        <_>
          13 16 6 6 -1.</_>
        <_>
          13 18 6 2 3.</_></rects>
      <tilted>0</tilted></_>
    <_>
      <rects>
        <_>
          14 0 2 8 -1.</_>
        <_>
          15 0 1 8 2.</_></rects>
      <tilted>0</tilted></_>
    <_>
      <rects>
        <_>
          14 2 2 3 -1.</_>
        <_>
          14 3 2 1 3.</_></rects>
      <tilted>0</tilted></_>
    <_>
      <rects>
        <_>
          14 8 9 3 -1.</_>
        <_>
          14 9 9 1 3.</_></rects>
      <tilted>0</tilted></_>
    <_>
      <rects>
        <_>
          14 13 3 5 -1.</_>
        <_>
          15 13 1 5 3.</_></rects>
      <tilted>0</tilted></_>
    <_>
      <rects>
        <_>
          14 15 1 2 -1.</_>
        <_>
          14 16 1 1 2.</_></rects>
      <tilted>0</tilted></_>
    <_>
      <rects>
        <_>
          15 3 9 2 -1.</_>
        <_>
          18 3 3 2 3.</_></rects>
      <tilted>0</tilted></_>
    <_>
      <rects>
        <_>
          15 4 8 8 -1.</_>
        <_>
          15 4 4 4 2.</_>
        <_>
          19 8 4 4 2.</_></rects>
      <tilted>0</tilted></_>
    <_>
      <rects>
        <_>
          15 6 8 18 -1.</_>
        <_>
          15 6 4 9 2.</_>
        <_>
          19 15 4 9 2.</_></rects>
      <tilted>0</tilted></_>
    <_>
      <rects>
        <_>
          15 7 3 6 -1.</_>
        <_>
          15 9 3 2 3.</_></rects>
      <tilted>0</tilted></_>
    <_>
      <rects>
        <_>
          15 8 3 2 -1.</_>
        <_>
          15 9 3 1 2.</_></rects>
      <tilted>0</tilted></_>
    <_>
      <rects>
        <_>
          15 15 9 6 -1.</_>
        <_>
          15 17 9 2 3.</_></rects>
      <tilted>0</tilted></_>
    <_>
      <rects>
        <_>
          16 3 2 9 -1.</_>
        <_>
          16 6 2 3 3.</_></rects>
      <tilted>0</tilted></_>
    <_>
      <rects>
        <_>
          16 7 2 12 -1.</_>
        <_>
          16 7 1 6 2.</_>
        <_>
          17 13 1 6 2.</_></rects>
      <tilted>0</tilted></_>
    <_>
      <rects>
        <_>
          16 12 6 12 -1.</_>
        <_>
          16 18 6 6 2.</_></rects>
      <tilted>0</tilted></_>
    <_>
      <rects>
        <_>
          16 15 3 5 -1.</_>
        <_>
          17 15 1 5 3.</_></rects>
      <tilted>0</tilted></_>
    <_>
      <rects>
        <_>
          17 22 6 2 -1.</_>
        <_>
          19 22 2 2 3.</_></rects>
      <tilted>0</tilted></_>
    <_>
      <rects>
        <_>
          18 6 6 9 -1.</_>
        <_>
          21 6 3 9 2.</_></rects>
      <tilted>0</tilted></_>
    <_>
      <rects>
        <_>
          18 14 5 10 -1.</_>
        <_>
          18 19 5 5 2.</_></rects>
      <tilted>0</tilted></_>
    <_>
      <rects>
        <_>
          19 9 4 7 -1.</_>
        <_>
          21 9 2 7 2.</_></rects>
      <tilted>0</tilted></_>
    <_>
      <rects>
        <_>
          19 9 4 14 -1.</_>
        <_>
          19 9 2 7 2.</_>
        <_>
          21 16 2 7 2.</_></rects>
      <tilted>0</tilted></_>
    <_>
      <rects>
        <_>
          20 5 4 12 -1.</_>
        <_>
          20 5 2 6 2.</_>
        <_>
          22 11 2 6 2.</_></rects>
      <tilted>0</tilted></_>
    <_>
      <rects>
        <_>
          20 6 2 12 -1.</_>
        <_>
          21 6 1 12 2.</_></rects>
      <tilted>0</tilted></_>
    <_>
      <rects>
        <_>
          21 2 1 3 -1.</_>
        <_>
          21 3 1 1 3.</_></rects>
      <tilted>0</tilted></_>
    <_>
      <rects>
        <_>
          22 1 2 22 -1.</_>
        <_>
          22 1 1 11 2.</_>
        <_>
          23 12 1 11 2.</_></rects>
      <tilted>0</tilted></_>
    <_>
      <rects>
        <_>
          22 10 2 2 -1.</_>
        <_>
          22 11 2 1 2.</_></rects>
      <tilted>0</tilted></_></features></cascade>
</opencv_storage>
